6.714836585367870647e+00 3.392442705528340152e+00 -8.476703057809598096e-01 4.165078146558445660e+00 1.324689558649444043e+00 -2.759473158426145822e+00 6.053294845967442939e+00 3.692040793061089676e+00 -1.525539726191033507e+00 5.328067463349434263e+00 1.021609305536275514e+01 -4.157534512613259015e-01 2.615973882868873890e+00 6.635049049446419822e+00 3.644092263917198538e-01 3.969894644741360334e+00 3.470462891936496153e+00 1.021635921730506213e+00 2.603183367141259197e+00 7.733584309022131897e+00
2.752556391103202049e+00 -1.679191817061989611e-01 -4.271730530755519339e+00 8.480886889077851265e+00 -1.091477629595437870e-01 -2.932082518660597881e+00 7.624980847589115207e+00 -6.089075176528969680e-01 -5.731661042102646597e+00 -1.242703317447149125e+00 2.670863827258452172e+00 5.776890208675130367e+00 -6.384760283960283722e+00 1.057863724438559361e+00 5.557893688777326702e-01 1.954794369242659480e+00 -5.449507103435260458e-01 -4.419925523713482463e+00 1.989792089004105868e+00 2.346001404253608147e+00
-2.581896671379048658e-01 2.880688454327984815e-01 -1.775008452671005932e+00 -8.351616535724817325e-01 -4.654209192317348531e+00 -3.224618942698028956e+00 -1.323566240728511478e-01 2.179578150986878904e-01 -8.168136866717228273e+00 -3.756697510067268819e+00 2.481957068882629347e+00 -3.543136796436107350e+00 -5.486712919379238329e+00 1.457983845316005223e+00 1.216728540026311700e+00 1.580962489500277623e+00 1.397660615685600183e+00 9.203386427553759130e-01 -3.446136542658063462e+00 1.211021836159136278e+00
4.348712714024958181e+00 6.089026165824411585e+00 -6.999212619773188537e-01 3.393502914345829957e+00 -1.290802874301351100e+00 -2.941376398439865189e-02 5.351956208771005308e+00 4.690834221753612532e+00 1.111393052345091448e+00 -3.861672543433879445e-01 3.761483065988839414e+00 6.529390820392944050e+00 -5.819120870317648908e+00 -6.377702289492210852e-01 2.736859079426868124e+00 2.916958583368280955e+00 1.150578496420200825e+00 -2.006384827012068328e+00 2.422522410619039057e+00 4.697881771864278022e+00
-2.172933938284374200e+00 -3.245296802595293073e+00 -2.458728172208821228e+00 -2.987036583889376651e+00 1.318546083044561712e+01 -3.708500528218653614e+00 -4.757252376716520459e+00 -1.744720796765891979e+00 -5.085568511568657746e-01 6.558316301588371644e+00 5.618117697482232664e+00 -2.581795481036134987e+00 3.469628857467739191e+00 5.316620784496441487e+00 2.379934212577266450e+00 -5.229570638568579177e+00 7.098380550903637953e-02 7.195784076783360295e-01 2.590012134464787952e+00 6.141581075689197533e+00
-5.106199238810079505e-02 -3.783603927300126735e+00 -3.482628938023158316e+00 -1.473201535907622040e+00 -7.706325046201281559e+00 -9.023099194641195808e+00 -4.173128292319883137e+00 -4.100098174137887796e-01 -1.044764800558257534e+01 -3.558011769517841927e+00 1.726118782668833118e+00 -5.042483464092107681e+00 -9.303232610964926153e+00 3.379642318550497571e-01 4.972774945049884820e-01 -3.882915314243802207e+00 7.586845366668102386e-01 -1.563934909733645018e+00 -2.816924618163596516e+00 -7.412379569160777726e-02
4.482544462145052755e+00 7.163118413401750928e+00 1.043080460445950264e+00 4.274266031036460411e+00 -8.963981907872936361e+00 -1.524658283506893808e+00 6.038957094907330792e+00 2.616066198077147686e-01 -2.612820888916560502e+00 -8.992752139797900446e-01 2.368735139518597599e+00 8.464664874749901813e+00 -8.397473135049045467e+00 -1.809323585664365464e+00 -5.706871492768837983e-01 4.865529051998418453e+00 2.115577587739581045e+00 -8.001929686709695844e+00 -2.400303660655368709e+00 9.503167758590820302e-01
4.817470110845107456e+00 1.755473699909648744e-01 -2.415859190934031009e+00 1.664494184956732292e+00 -8.435546728123696214e-01 -2.079119443376866272e+00 2.272592178108987782e-01 3.942617133242729999e+00 -3.174990894784947670e+00 3.969183751139008454e+00 5.475726549600455684e+00 4.744580014668028367e-01 -1.613343485265167576e+00 2.994888845153822921e+00 3.776133484811379670e+00 3.387110224069299846e+00 5.598533512233173859e+00 3.618139296414045969e+00 3.508623119010842561e+00 5.805479896460654210e+00
-7.418584280555016175e-01 -3.328656161140627123e+00 -8.138608799656475767e+00 2.376574090423546615e+00 2.900656526213416520e+00 -8.980834496148553114e+00 -2.286116413751985821e+00 -4.603830790664884987e+00 -4.504953954071488020e+00 -4.174801192923692783e-01 6.320113775531970290e-01 -4.863863869890249880e+00 -5.637773420661966739e+00 1.220496856806920993e+00 -2.088153529753841386e+00 -2.293157915463943208e+00 -1.699975120561437292e+00 1.654250688540503056e+00 1.999024021624940639e+00 -2.292970832997958119e-01
6.304260862343269878e+00 2.388209933815935937e+00 -3.802943443411062496e+00 1.367301687789463926e+00 2.816700236004565649e+00 2.922849715437024765e-01 5.034821965505994479e-01 5.586341531180164743e+00 -1.581642103111656983e+00 2.273532575854799287e+00 3.168013537740019814e+00 -1.292786770929131857e+00 7.021947888426721462e+00 6.135808231696487702e+00 2.717732142533733075e+00 3.309238218621584515e+00 3.039599689292872498e+00 4.590681019781462702e+00 1.300321195667071494e+00 -2.359678973378097899e-01
9.799332321226541964e+00 2.441054546286335558e+00 3.058130162691748311e+00 3.361653305748625087e+00 7.647952620180398675e+00 1.703882917323785717e+00 3.734625143540811543e+00 5.551562592497884197e+00 3.766862083499719072e-01 4.066607209579447435e+00 6.787889177712620459e+00 3.404835520210259814e-01 8.108174827679945906e+00 7.661934268538132642e+00 3.145032235192603220e+00 4.158893399958000892e+00 4.375368684339017378e+00 9.658442886501767077e+00 2.208809184103967649e+00 4.696420868260916315e+00
1.281472750003517014e+00 5.705993067460452650e+00 -5.974631913764179458e+00 8.122170277647857262e+00 -5.260868741917306579e+00 -4.505550259425382009e+00 7.875458363466287359e+00 2.388932719656509107e+00 -7.378360238673300486e+00 -3.971760660030602352e+00 1.503760095397049579e+00 -2.624758916945265419e+00 -9.626528219946150600e+00 -1.985870393122037170e+00 -1.859338472698885969e+00 -2.300162141719436892e+00 -1.393432317550598043e+00 -2.507019826621840863e+00 -2.652881269194286684e+00 -2.517646948496983672e+00
2.763882649924872759e+00 -4.688949112239443551e+00 -5.570793168878799051e+00 -4.310522551429746940e+00 7.624542074666052827e+00 -6.782568099424823416e+00 -1.004186501402009046e+00 -5.475287997198875489e-01 -5.231187718177608303e+00 5.230692028500622648e+00 5.055369696380634714e+00 -8.050467521612196364e+00 3.999907791759077291e+00 6.291403404577010861e+00 -1.217962123231895455e-01 -4.729819080099097128e+00 -4.354406609041336473e+00 2.649294148353911194e+00 5.458278854301826799e-01 6.034264268797812747e+00
5.434387735432339994e+00 3.761676870998341915e+00 1.741349344598902560e+00 1.431998824510044566e-01 1.087676608312179738e+01 -3.817441211936697609e+00 -1.122764713211352960e+00 4.595520241968718445e+00 2.750844620212729907e+00 5.150913595793379152e+00 6.198991822959655451e+00 -1.780860609367728609e+00 5.412035538829620407e+00 7.144899787958747694e+00 3.097502159135793409e+00 2.035525428510908785e+00 5.879554702410866085e+00 3.101457573927356215e+00 3.002325961046639957e+00 7.304755480633544629e+00
-5.211925689677451290e-01 -1.009879874116310638e+00 1.614614853941072070e-01 6.285921042072498688e-01 1.109832409460241642e+00 -1.064658222767262075e+00 1.400455642379123011e+00 4.893797310667657441e-01 -2.961994807794387174e+00 4.375101143501937351e+00 5.545344928255650174e+00 -2.096219833420847500e+00 -7.291289241319432790e+00 1.404861434548194676e+00 2.162067075208321310e+00 2.889400356783465185e+00 3.340157133476829632e+00 -7.732986313543803447e-02 -9.958561189597855412e-01 7.315216448457395160e+00
5.196516893908270873e+00 8.370901074598170455e-01 1.084612724410849438e+00 3.742869095581406125e+00 -4.492209286157964776e+00 -3.118560253842384000e+00 2.475990245164071180e+00 3.438009371585645013e+00 -3.408843358979513294e+00 -3.630578977133696039e-01 4.098412150118806885e+00 2.236269442774431404e+00 -5.138453501367254539e+00 3.251536295563026702e-01 -6.579546966441907063e-01 1.875184498821943213e-01 8.380169861240905904e-01 -4.311814858363011149e-01 -1.100413523962398665e+00 1.066150692152455282e+00
5.562349885671531879e+00 4.369600199028469967e-01 5.159438064258411449e-01 7.932216183739485560e-01 1.305274771681311119e+00 -3.866108334874276853e+00 2.274341734610062726e+00 3.150752779594319986e+00 2.225586907249724467e-01 4.183485349599031622e+00 4.261125135890929450e+00 -4.452077153348847904e-01 -4.802126909383465092e-01 1.642014209676831760e+00 2.234004482492226717e+00 3.991559713828300993e+00 1.982464573523899043e+00 2.436515692048151660e+00 1.264012791203030117e+00 1.622049228393066977e+00
3.435133729503743183e+00 1.253573899741883269e+00 -3.939028448678785654e+00 -1.208988611695727355e+00 3.781483370387443088e+00 2.138124724977735536e+00 -6.422141990297278724e+00 2.736267487096312845e+00 2.783170339496636281e+00 4.278916845067879393e+00 2.989307964678039387e+00 -1.085428057058080986e+00 -2.261356237235863542e+00 1.045142638037187766e+00 -1.272303012216740692e+00 -3.231766357169089776e+00 -1.058549801865158013e+00 3.641311340790943429e+00 1.960187198416115217e+00 3.645689436947312512e+00
4.002707896834222900e+00 1.038106063257528744e+00 -3.676596629648172687e+00 3.478104770267971713e+00 4.231929121464355958e+00 -5.567074686033746111e+00 -2.209552342225903132e+00 -1.466395103906239061e+00 2.554712978121244316e+00 5.183960556736866288e+00 4.629113828063307068e+00 1.227171230230601262e+00 3.593386807936385985e+00 5.363128732509610863e+00 3.786561443138309002e+00 -1.369575921241677152e+00 3.445177678721820791e-01 9.036586066545563511e+00 -5.038570622183370373e-01 1.460431205635565499e+00
7.899638337226194018e+00 1.866382166679816379e+00 3.193537429679172313e+00 1.408787395024160949e+00 4.676990154449343073e+00 -2.098810978839136254e-01 -5.452305893713605967e-01 8.078762207119710936e+00 -3.902500608428988854e-02 -1.779371649592698390e-01 2.949133389833686447e+00 -1.204170855648386329e+00 7.142446240475339714e+00 5.007619696423165401e+00 4.672506776370004999e+00 2.948205647218122394e+00 2.367129752351782024e+00 2.948608070359154176e+00 2.516625452503018057e+00 3.158459702375246092e+00
